digraph Tree {
node [shape=box, style="filled", color="black"] ;
0 [label="water <= 175.55\nmse = 270.452\nsamples = 385\nvalue = 34.64", fillcolor="#f5ceb1"] ;
1 [label="cement <= 252.05\nmse = 287.593\nsamples = 134\nvalue = 46.195", fillcolor="#f1bb94"] ;
0 -> 1 [labeldistance=2.5, labelangle=45, headlabel="True"] ;
2 [label="age <= 42.0\nmse = 169.613\nsamples = 51\nvalue = 34.652", fillcolor="#f5cdb1"] ;
1 -> 2 ;
3 [label="blast_furnace_slag <= 43.7\nmse = 94.312\nsamples = 33\nvalue = 27.939", fillcolor="#f7d8c2"] ;
2 -> 3 ;
4 [label="cement <= 213.05\nmse = 79.902\nsamples = 23\nvalue = 23.126", fillcolor="#f9e0cf"] ;
3 -> 4 ;
5 [label="coarse_aggregate <= 1004.7\nmse = 30.935\nsamples = 13\nvalue = 18.67", fillcolor="#fae7da"] ;
4 -> 5 ;
6 [label="age <= 8.5\nmse = 10.687\nsamples = 6\nvalue = 15.677", fillcolor="#fbece2"] ;
5 -> 6 ;
7 [label="mse = 0.294\nsamples = 2\nvalue = 12.947", fillcolor="#fcf1e9"] ;
6 -> 7 ;
8 [label="coarse_aggregate <= 997.5\nmse = 10.739\nsamples = 4\nvalue = 16.701", fillcolor="#fbebdf"] ;
6 -> 8 ;
9 [label="mse = 0.005\nsamples = 3\nvalue = 15.463", fillcolor="#fbede2"] ;
8 -> 9 ;
10 [label="mse = -0.0\nsamples = 1\nvalue = 25.37", fillcolor="#f8ddc9"] ;
8 -> 10 ;
11 [label="water <= 140.05\nmse = 31.348\nsamples = 7\nvalue = 22.329", fillcolor="#f9e2d1"] ;
5 -> 11 ;
12 [label="mse = 0.0\nsamples = 1\nvalue = 7.75", fillcolor="#fef9f6"] ;
11 -> 12 ;
13 [label="coarse_aggregate <= 1068.2\nmse = 5.377\nsamples = 6\nvalue = 24.151", fillcolor="#f8dfcc"] ;
11 -> 13 ;
14 [label="mse = 1.303\nsamples = 3\nvalue = 25.987", fillcolor="#f8dcc7"] ;
13 -> 14 ;
15 [label="mse = 2.708\nsamples = 3\nvalue = 22.315", fillcolor="#f9e2d1"] ;
13 -> 15 ;
16 [label="coarse_aggregate <= 1054.95\nmse = 77.718\nsamples = 10\nvalue = 29.98", fillcolor="#f6d5bd"] ;
4 -> 16 ;
17 [label="cement <= 213.6\nmse = 34.93\nsamples = 7\nvalue = 35.405", fillcolor="#f5ccaf"] ;
16 -> 17 ;
18 [label="age <= 21.0\nmse = 48.869\nsamples = 4\nvalue = 38.468", fillcolor="#f4c7a7"] ;
17 -> 18 ;
19 [label="mse = 4.223\nsamples = 2\nvalue = 31.645", fillcolor="#f6d2b9"] ;
18 -> 19 ;
20 [label="mse = 0.422\nsamples = 2\nvalue = 45.29", fillcolor="#f1bc96"] ;
18 -> 20 ;
21 [label="mse = 2.233\nsamples = 3\nvalue = 32.342", fillcolor="#f6d1b7"] ;
17 -> 21 ;
22 [label="mse = 23.747\nsamples = 3\nvalue = 21.3", fillcolor="#f9e3d3"] ;
16 -> 22 ;
23 [label="coarse_aggregate <= 918.0\nmse = 16.772\nsamples = 10\nvalue = 35.882", fillcolor="#f4cbae"] ;
3 -> 23 ;
24 [label="mse = 0.0\nsamples = 1\nvalue = 44.61", fillcolor="#f1bd98"] ;
23 -> 24 ;
25 [label="superplasticizer <= 8.9\nmse = 9.231\nsamples = 9\nvalue = 34.912", fillcolor="#f5cdb1"] ;
23 -> 25 ;
26 [label="mse = 0.589\nsamples = 3\nvalue = 32.481", fillcolor="#f6d1b7"] ;
25 -> 26 ;
27 [label="coarse_aggregate <= 980.1\nmse = 8.577\nsamples = 6\nvalue = 36.459", fillcolor="#f4cbad"] ;
25 -> 27 ;
28 [label="mse = 0.0\nsamples = 1\nvalue = 27.68", fillcolor="#f7d9c3"] ;
27 -> 28 ;
29 [label="fine_aggregate <= 786.65\nmse = 0.957\nsamples = 5\nvalue = 37.337", fillcolor="#f4c9aa"] ;
27 -> 29 ;
30 [label="water <= 163.95\nmse = 0.206\nsamples = 4\nvalue = 37.927", fillcolor="#f4c8a9"] ;
29 -> 30 ;
31 [label="mse = 0.0\nsamples = 1\nvalue = 38.6", fillcolor="#f3c7a7"] ;
30 -> 31 ;
32 [label="mse = 0.035\nsamples = 3\nvalue = 37.658", fillcolor="#f4c9aa"] ;
30 -> 32 ;
33 [label="mse = -0.0\nsamples = 1\nvalue = 35.96", fillcolor="#f4cbae"] ;
29 -> 33 ;
34 [label="fly_ash <= 124.95\nmse = 65.409\nsamples = 18\nvalue = 47.358", fillcolor="#f1b991"] ;
2 -> 34 ;
35 [label="blast_furnace_slag <= 49.5\nmse = 26.561\nsamples = 9\nvalue = 42.598", fillcolor="#f2c19d"] ;
34 -> 35 ;
36 [label="cement <= 225.35\nmse = 14.331\nsamples = 8\nvalue = 41.663", fillcolor="#f2c29f"] ;
35 -> 36 ;
37 [label="fly_ash <= 124.45\nmse = 12.815\nsamples = 5\nvalue = 40.341", fillcolor="#f3c4a3"] ;
36 -> 37 ;
38 [label="blast_furnace_slag <= 22.6\nmse = 7.943\nsamples = 4\nvalue = 39.593", fillcolor="#f3c5a5"] ;
37 -> 38 ;
39 [label="mse = 5.159\nsamples = 3\nvalue = 38.616", fillcolor="#f3c7a7"] ;
38 -> 39 ;
40 [label="mse = 0.0\nsamples = 1\nvalue = 43.5", fillcolor="#f2bf9b"] ;
38 -> 40 ;
41 [label="mse = 0.0\nsamples = 1\nvalue = 47.82", fillcolor="#f0b890"] ;
37 -> 41 ;
42 [label="mse = 0.483\nsamples = 3\nvalue = 45.298", fillcolor="#f1bc96"] ;
36 -> 42 ;
43 [label="mse = 0.0\nsamples = 1\nvalue = 56.63", fillcolor="#edaa79"] ;
35 -> 43 ;
44 [label="superplasticizer <= 5.3\nmse = 46.713\nsamples = 9\nvalue = 53.705", fillcolor="#eeaf81"] ;
34 -> 44 ;
45 [label="mse = 0.0\nsamples = 1\nvalue = 35.85", fillcolor="#f4ccae"] ;
44 -> 45 ;
46 [label="cement <= 210.3\nmse = 19.343\nsamples = 8\nvalue = 55.328", fillcolor="#eeac7c"] ;
44 -> 46 ;
47 [label="cement <= 173.65\nmse = 4.009\nsamples = 6\nvalue = 53.541", fillcolor="#eeaf81"] ;
46 -> 47 ;
48 [label="age <= 78.0\nmse = 2.67\nsamples = 5\nvalue = 54.284", fillcolor="#eeae7f"] ;
47 -> 48 ;
49 [label="mse = 0.568\nsamples = 2\nvalue = 53.025", fillcolor="#efb082"] ;
48 -> 49 ;
50 [label="mse = 0.539\nsamples = 3\nvalue = 55.963", fillcolor="#eeab7b"] ;
48 -> 50 ;
51 [label="mse = -0.0\nsamples = 1\nvalue = 50.94", fillcolor="#efb388"] ;
47 -> 51 ;
52 [label="mse = 9.302\nsamples = 2\nvalue = 63.37", fillcolor="#eb9f68"] ;
46 -> 52 ;
53 [label="age <= 21.0\nmse = 226.359\nsamples = 83\nvalue = 53.387", fillcolor="#efaf81"] ;
1 -> 53 ;
54 [label="age <= 5.0\nmse = 95.027\nsamples = 29\nvalue = 39.841", fillcolor="#f3c5a4"] ;
53 -> 54 ;
55 [label="cement <= 350.25\nmse = 53.732\nsamples = 14\nvalue = 31.374", fillcolor="#f6d3ba"] ;
54 -> 55 ;
56 [label="fly_ash <= 47.8\nmse = 0.763\nsamples = 6\nvalue = 23.77", fillcolor="#f8dfcd"] ;
55 -> 56 ;
57 [label="mse = 0.202\nsamples = 3\nvalue = 24.45", fillcolor="#f8decb"] ;
56 -> 57 ;
58 [label="mse = 0.072\nsamples = 3\nvalue = 22.863", fillcolor="#f9e1cf"] ;
56 -> 58 ;
59 [label="water <= 150.65\nmse = 22.013\nsamples = 8\nvalue = 36.696", fillcolor="#f4caac"] ;
55 -> 59 ;
60 [label="fine_aggregate <= 846.3\nmse = 0.154\nsamples = 4\nvalue = 40.76", fillcolor="#f3c4a2"] ;
59 -> 60 ;
61 [label="mse = 0.036\nsamples = 2\nvalue = 40.467", fillcolor="#f3c4a2"] ;
60 -> 61 ;
62 [label="mse = 0.01\nsamples = 2\nvalue = 41.2", fillcolor="#f3c3a0"] ;
60 -> 62 ;
63 [label="superplasticizer <= 13.75\nmse = 10.838\nsamples = 4\nvalue = 32.632", fillcolor="#f5d1b6"] ;
59 -> 63 ;
64 [label="mse = 0.001\nsamples = 3\nvalue = 35.32", fillcolor="#f5ccaf"] ;
63 -> 64 ;
65 [label="mse = 0.0\nsamples = 1\nvalue = 28.6", fillcolor="#f7d7c1"] ;
63 -> 65 ;
66 [label="blast_furnace_slag <= 101.7\nmse = 58.64\nsamples = 15\nvalue = 44.339", fillcolor="#f2be98"] ;
54 -> 66 ;
67 [label="water <= 150.7\nmse = 31.781\nsamples = 11\nvalue = 41.524", fillcolor="#f2c2a0"] ;
66 -> 67 ;
68 [label="fine_aggregate <= 870.55\nmse = 16.547\nsamples = 4\nvalue = 48.127", fillcolor="#f0b88f"] ;
67 -> 68 ;
69 [label="mse = 0.0\nsamples = 1\nvalue = 54.1", fillcolor="#eeae80"] ;
68 -> 69 ;
70 [label="mse = 3.188\nsamples = 3\nvalue = 45.738", fillcolor="#f1bb95"] ;
68 -> 70 ;
71 [label="superplasticizer <= 13.0\nmse = 12.708\nsamples = 7\nvalue = 38.805", fillcolor="#f3c7a7"] ;
67 -> 71 ;
72 [label="fly_ash <= 47.0\nmse = 6.796\nsamples = 6\nvalue = 37.859", fillcolor="#f4c8a9"] ;
71 -> 72 ;
73 [label="mse = 0.0\nsamples = 1\nvalue = 34.9", fillcolor="#f5cdb1"] ;
72 -> 73 ;
74 [label="coarse_aggregate <= 940.0\nmse = 4.925\nsamples = 5\nvalue = 38.935", fillcolor="#f3c7a6"] ;
72 -> 74 ;
75 [label="mse = 0.457\nsamples = 2\nvalue = 41.118", fillcolor="#f3c3a1"] ;
74 -> 75 ;
76 [label="mse = 1.371\nsamples = 3\nvalue = 37.117", fillcolor="#f4c9ab"] ;
74 -> 76 ;
77 [label="mse = -0.0\nsamples = 1\nvalue = 45.9", fillcolor="#f1bb94"] ;
71 -> 77 ;
78 [label="fine_aggregate <= 779.75\nmse = 44.115\nsamples = 4\nvalue = 52.785", fillcolor="#efb083"] ;
66 -> 78 ;
79 [label="mse = 2.442\nsamples = 2\nvalue = 57.176", fillcolor="#eda978"] ;
78 -> 79 ;
80 [label="mse = 27.876\nsamples = 2\nvalue = 45.467", fillcolor="#f1bc96"] ;
78 -> 80 ;
81 [label="fly_ash <= 41.75\nmse = 127.651\nsamples = 54\nvalue = 61.582", fillcolor="#eca26c"] ;
53 -> 81 ;
82 [label="cement <= 311.65\nmse = 109.834\nsamples = 34\nvalue = 66.478", fillcolor="#ea9a60"] ;
81 -> 82 ;
83 [label="fly_ash <= 12.25\nmse = 84.18\nsamples = 4\nvalue = 51.747", fillcolor="#efb286"] ;
82 -> 83 ;
84 [label="mse = 9.522\nsamples = 3\nvalue = 46.68", fillcolor="#f1ba93"] ;
83 -> 84 ;
85 [label="mse = -0.0\nsamples = 1\nvalue = 66.95", fillcolor="#ea995f"] ;
83 -> 85 ;
86 [label="age <= 90.5\nmse = 62.886\nsamples = 30\nvalue = 69.424", fillcolor="#e99558"] ;
82 -> 86 ;
87 [label="superplasticizer <= 7.25\nmse = 42.689\nsamples = 22\nvalue = 65.971", fillcolor="#ea9b61"] ;
86 -> 87 ;
88 [label="superplasticizer <= 4.95\nmse = 33.587\nsamples = 6\nvalue = 70.716", fillcolor="#e99355"] ;
87 -> 88 ;
89 [label="fine_aggregate <= 874.5\nmse = 18.508\nsamples = 5\nvalue = 69.14", fillcolor="#e99559"] ;
88 -> 89 ;
90 [label="age <= 59.0\nmse = 6.747\nsamples = 4\nvalue = 66.8", fillcolor="#ea995f"] ;
89 -> 90 ;
91 [label="mse = 5.877\nsamples = 3\nvalue = 66.085", fillcolor="#ea9a61"] ;
90 -> 91 ;
92 [label="mse = 0.0\nsamples = 1\nvalue = 69.66", fillcolor="#e99558"] ;
90 -> 92 ;
93 [label="mse = 0.0\nsamples = 1\nvalue = 74.99", fillcolor="#e78c4a"] ;
89 -> 93 ;
94 [label="mse = 0.0\nsamples = 1\nvalue = 81.75", fillcolor="#e58139"] ;
88 -> 94 ;
95 [label="coarse_aggregate <= 931.05\nmse = 31.391\nsamples = 16\nvalue = 63.738", fillcolor="#eb9e67"] ;
87 -> 95 ;
96 [label="age <= 42.0\nmse = 10.136\nsamples = 8\nvalue = 61.183", fillcolor="#eca26d"] ;
95 -> 96 ;
97 [label="coarse_aggregate <= 866.85\nmse = 5.819\nsamples = 5\nvalue = 59.475", fillcolor="#eca572"] ;
96 -> 97 ;
98 [label="mse = 0.36\nsamples = 2\nvalue = 56.1", fillcolor="#eeab7a"] ;
97 -> 98 ;
99 [label="mse = 0.005\nsamples = 3\nvalue = 61.162", fillcolor="#eca26e"] ;
97 -> 99 ;
100 [label="mse = 1.26\nsamples = 3\nvalue = 64.6", fillcolor="#eb9d65"] ;
96 -> 100 ;
101 [label="coarse_aggregate <= 995.8\nmse = 39.699\nsamples = 8\nvalue = 66.613", fillcolor="#ea9a60"] ;
95 -> 101 ;
102 [label="fine_aggregate <= 779.75\nmse = 9.83\nsamples = 5\nvalue = 70.66", fillcolor="#e99355"] ;
101 -> 102 ;
103 [label="mse = 1.92\nsamples = 4\nvalue = 72.1", fillcolor="#e89152"] ;
102 -> 103 ;
104 [label="mse = -0.0\nsamples = 1\nvalue = 64.9", fillcolor="#eb9c64"] ;
102 -> 104 ;
105 [label="mse = 16.669\nsamples = 3\nvalue = 59.867", fillcolor="#eca571"] ;
101 -> 105 ;
106 [label="coarse_aggregate <= 940.35\nmse = 43.546\nsamples = 8\nvalue = 75.18", fillcolor="#e78c4a"] ;
86 -> 106 ;
107 [label="water <= 144.6\nmse = 4.898\nsamples = 4\nvalue = 66.48", fillcolor="#ea9a60"] ;
106 -> 107 ;
108 [label="mse = 0.0\nsamples = 1\nvalue = 70.7", fillcolor="#e99355"] ;
107 -> 108 ;
109 [label="mse = 0.557\nsamples = 3\nvalue = 65.425", fillcolor="#ea9c63"] ;
107 -> 109 ;
110 [label="cement <= 395.85\nmse = 6.102\nsamples = 4\nvalue = 79.53", fillcolor="#e6853f"] ;
106 -> 110 ;
111 [label="mse = 2.552\nsamples = 3\nvalue = 80.538", fillcolor="#e5833c"] ;
110 -> 111 ;
112 [label="mse = 0.0\nsamples = 1\nvalue = 75.5", fillcolor="#e78b49"] ;
110 -> 112 ;
113 [label="coarse_aggregate <= 862.5\nmse = 67.963\nsamples = 20\nvalue = 54.459", fillcolor="#eead7f"] ;
81 -> 113 ;
114 [label="mse = 0.0\nsamples = 1\nvalue = 74.36", fillcolor="#e78d4c"] ;
113 -> 114 ;
115 [label="age <= 42.0\nmse = 45.148\nsamples = 19\nvalue = 53.175", fillcolor="#efaf82"] ;
113 -> 115 ;
116 [label="water <= 161.3\nmse = 41.413\nsamples = 9\nvalue = 49.711", fillcolor="#f0b58b"] ;
115 -> 116 ;
117 [label="fine_aggregate <= 823.0\nmse = 21.852\nsamples = 7\nvalue = 52.468", fillcolor="#efb184"] ;
116 -> 117 ;
118 [label="water <= 158.75\nmse = 10.762\nsamples = 4\nvalue = 55.162", fillcolor="#eeac7d"] ;
117 -> 118 ;
119 [label="mse = 3.118\nsamples = 3\nvalue = 57.462", fillcolor="#eda877"] ;
118 -> 119 ;
120 [label="mse = 0.0\nsamples = 1\nvalue = 51.33", fillcolor="#efb287"] ;
118 -> 120 ;
121 [label="mse = 0.48\nsamples = 3\nvalue = 47.08", fillcolor="#f1b991"] ;
117 -> 121 ;
122 [label="mse = 8.88\nsamples = 2\nvalue = 41.44", fillcolor="#f3c2a0"] ;
116 -> 122 ;
123 [label="water <= 165.05\nmse = 22.677\nsamples = 10\nvalue = 56.871", fillcolor="#eda978"] ;
115 -> 123 ;
124 [label="fly_ash <= 131.2\nmse = 12.636\nsamples = 7\nvalue = 58.611", fillcolor="#eda774"] ;
123 -> 124 ;
125 [label="age <= 78.0\nmse = 3.589\nsamples = 6\nvalue = 57.689", fillcolor="#eda876"] ;
124 -> 125 ;
126 [label="superplasticizer <= 12.9\nmse = 3.017\nsamples = 4\nvalue = 56.829", fillcolor="#eda979"] ;
125 -> 126 ;
127 [label="mse = 3.889\nsamples = 2\nvalue = 57.126", fillcolor="#eda978"] ;
126 -> 127 ;
128 [label="mse = 0.065\nsamples = 2\nvalue = 56.085", fillcolor="#eeab7b"] ;
126 -> 128 ;
129 [label="mse = 1.027\nsamples = 2\nvalue = 59.195", fillcolor="#eda673"] ;
125 -> 129 ;
130 [label="mse = 0.0\nsamples = 1\nvalue = 68.75", fillcolor="#e9965a"] ;
124 -> 130 ;
131 [label="mse = 2.279\nsamples = 3\nvalue = 49.91", fillcolor="#f0b58a"] ;
123 -> 131 ;
132 [label="age <= 21.0\nmse = 156.459\nsamples = 251\nvalue = 28.649", fillcolor="#f7d7c1"] ;
0 -> 132 [labeldistance=2.5, labelangle=-45, headlabel="False"] ;
133 [label="cement <= 395.0\nmse = 61.955\nsamples = 86\nvalue = 17.883", fillcolor="#fae9dc"] ;
132 -> 133 ;
134 [label="cement <= 226.5\nmse = 44.235\nsamples = 78\nvalue = 16.667", fillcolor="#fbebdf"] ;
133 -> 134 ;
135 [label="cement <= 169.9\nmse = 22.272\nsamples = 25\nvalue = 11.377", fillcolor="#fdf3ed"] ;
134 -> 135 ;
136 [label="blast_furnace_slag <= 206.45\nmse = 10.655\nsamples = 9\nvalue = 7.55", fillcolor="#fefaf6"] ;
135 -> 136 ;
137 [label="age <= 5.0\nmse = 3.363\nsamples = 4\nvalue = 5.31", fillcolor="#fffdfc"] ;
136 -> 137 ;
138 [label="mse = 1.125\nsamples = 2\nvalue = 4.168", fillcolor="#ffffff"] ;
137 -> 138 ;
139 [label="mse = 0.007\nsamples = 2\nvalue = 7.595", fillcolor="#fef9f6"] ;
137 -> 139 ;
140 [label="coarse_aggregate <= 1043.8\nmse = 6.157\nsamples = 5\nvalue = 10.238", fillcolor="#fdf5f0"] ;
136 -> 140 ;
141 [label="fine_aggregate <= 713.45\nmse = 1.778\nsamples = 4\nvalue = 9.15", fillcolor="#fdf7f2"] ;
140 -> 141 ;
142 [label="mse = 0.0\nsamples = 1\nvalue = 6.9", fillcolor="#fefbf8"] ;
141 -> 142 ;
143 [label="mse = 0.121\nsamples = 3\nvalue = 9.9", fillcolor="#fdf6f0"] ;
141 -> 143 ;
144 [label="mse = -0.0\nsamples = 1\nvalue = 14.59", fillcolor="#fceee4"] ;
140 -> 144 ;
145 [label="superplasticizer <= 2.65\nmse = 17.472\nsamples = 16\nvalue = 13.208", fillcolor="#fcf0e8"] ;
135 -> 145 ;
146 [label="age <= 5.0\nmse = 14.324\nsamples = 13\nvalue = 12.36", fillcolor="#fcf2ea"] ;
145 -> 146 ;
147 [label="water <= 197.75\nmse = 7.0\nsamples = 4\nvalue = 8.552", fillcolor="#fef8f4"] ;
146 -> 147 ;
148 [label="mse = 2.977\nsamples = 2\nvalue = 10.35", fillcolor="#fdf5ef"] ;
147 -> 148 ;
149 [label="mse = 0.912\nsamples = 2\nvalue = 5.855", fillcolor="#fefcfb"] ;
147 -> 149 ;
150 [label="blast_furnace_slag <= 128.25\nmse = 10.319\nsamples = 9\nvalue = 13.63", fillcolor="#fcf0e7"] ;
146 -> 150 ;
151 [label="superplasticizer <= 0.85\nmse = 3.59\nsamples = 4\nvalue = 11.369", fillcolor="#fdf3ed"] ;
150 -> 151 ;
152 [label="mse = 1.524\nsamples = 3\nvalue = 10.752", fillcolor="#fdf4ee"] ;
151 -> 152 ;
153 [label="mse = -0.0\nsamples = 1\nvalue = 15.07", fillcolor="#fbede3"] ;
151 -> 153 ;
154 [label="coarse_aggregate <= 969.4\nmse = 7.817\nsamples = 5\nvalue = 15.609", fillcolor="#fbece2"] ;
150 -> 154 ;
155 [label="mse = 4.128\nsamples = 2\nvalue = 18.607", fillcolor="#fae8da"] ;
154 -> 155 ;
156 [label="mse = 1.403\nsamples = 3\nvalue = 13.81", fillcolor="#fcefe6"] ;
154 -> 156 ;
157 [label="mse = 1.759\nsamples = 3\nvalue = 18.857", fillcolor="#fae7da"] ;
145 -> 157 ;
158 [label="age <= 5.0\nmse = 38.869\nsamples = 53\nvalue = 18.484", fillcolor="#fae8da"] ;
134 -> 158 ;
159 [label="superplasticizer <= 6.7\nmse = 14.737\nsamples = 21\nvalue = 14.854", fillcolor="#fbeee4"] ;
158 -> 159 ;
160 [label="cement <= 389.0\nmse = 8.225\nsamples = 19\nvalue = 13.942", fillcolor="#fcefe6"] ;
159 -> 160 ;
161 [label="fine_aggregate <= 903.1\nmse = 5.496\nsamples = 17\nvalue = 13.307", fillcolor="#fcf0e8"] ;
160 -> 161 ;
162 [label="cement <= 380.5\nmse = 4.06\nsamples = 16\nvalue = 13.637", fillcolor="#fcf0e7"] ;
161 -> 162 ;
163 [label="cement <= 233.0\nmse = 2.326\nsamples = 15\nvalue = 13.882", fillcolor="#fcefe6"] ;
162 -> 163 ;
164 [label="mse = 2.464\nsamples = 2\nvalue = 12.25", fillcolor="#fcf2ea"] ;
163 -> 164 ;
165 [label="mse = 1.981\nsamples = 13\nvalue = 14.064", fillcolor="#fcefe6"] ;
163 -> 165 ;
166 [label="mse = 0.0\nsamples = 1\nvalue = 6.27", fillcolor="#fefcfa"] ;
162 -> 166 ;
167 [label="mse = 0.0\nsamples = 1\nvalue = 8.2", fillcolor="#fef8f5"] ;
161 -> 167 ;
168 [label="mse = 0.002\nsamples = 2\nvalue = 19.178", fillcolor="#fae7d9"] ;
160 -> 168 ;
169 [label="mse = 11.209\nsamples = 2\nvalue = 21.604", fillcolor="#f9e3d2"] ;
159 -> 169 ;
170 [label="fine_aggregate <= 667.1\nmse = 39.79\nsamples = 32\nvalue = 21.158", fillcolor="#f9e3d4"] ;
158 -> 170 ;
171 [label="mse = 72.08\nsamples = 2\nvalue = 41.31", fillcolor="#f3c3a0"] ;
170 -> 171 ;
172 [label="coarse_aggregate <= 1067.5\nmse = 23.311\nsamples = 30\nvalue = 20.425", fillcolor="#fae5d6"] ;
170 -> 172 ;
173 [label="water <= 189.75\nmse = 17.174\nsamples = 26\nvalue = 21.849", fillcolor="#f9e2d2"] ;
172 -> 173 ;
174 [label="blast_furnace_slag <= 86.9\nmse = 13.382\nsamples = 13\nvalue = 23.998", fillcolor="#f8dfcc"] ;
173 -> 174 ;
175 [label="coarse_aggregate <= 1043.5\nmse = 7.912\nsamples = 9\nvalue = 25.838", fillcolor="#f8dcc8"] ;
174 -> 175 ;
176 [label="mse = 5.8\nsamples = 6\nvalue = 27.298", fillcolor="#f7d9c4"] ;
175 -> 176 ;
177 [label="mse = 1.952\nsamples = 3\nvalue = 23.403", fillcolor="#f9e0ce"] ;
175 -> 177 ;
178 [label="fine_aggregate <= 724.3\nmse = 4.026\nsamples = 4\nvalue = 20.32", fillcolor="#fae5d6"] ;
174 -> 178 ;
179 [label="mse = 1.101\nsamples = 3\nvalue = 20.981", fillcolor="#f9e4d4"] ;
178 -> 179 ;
180 [label="mse = -0.0\nsamples = 1\nvalue = 15.69", fillcolor="#fbece2"] ;
178 -> 180 ;
181 [label="coarse_aggregate <= 969.0\nmse = 10.198\nsamples = 13\nvalue = 19.393", fillcolor="#fae6d8"] ;
173 -> 181 ;
182 [label="fine_aggregate <= 870.5\nmse = 14.616\nsamples = 5\nvalue = 21.66", fillcolor="#f9e3d2"] ;
181 -> 182 ;
183 [label="mse = 4.004\nsamples = 4\nvalue = 22.92", fillcolor="#f9e1cf"] ;
182 -> 183 ;
184 [label="mse = 0.0\nsamples = 1\nvalue = 12.84", fillcolor="#fcf1e9"] ;
182 -> 184 ;
185 [label="coarse_aggregate <= 971.3\nmse = 2.371\nsamples = 8\nvalue = 17.998", fillcolor="#fae9dc"] ;
181 -> 185 ;
186 [label="mse = 0.0\nsamples = 1\nvalue = 14.99", fillcolor="#fbede3"] ;
185 -> 186 ;
187 [label="mse = 0.857\nsamples = 7\nvalue = 18.545", fillcolor="#fae8da"] ;
185 -> 187 ;
188 [label="coarse_aggregate <= 1107.5\nmse = 0.739\nsamples = 4\nvalue = 14.017", fillcolor="#fcefe6"] ;
172 -> 188 ;
189 [label="mse = 0.02\nsamples = 3\nvalue = 14.3", fillcolor="#fcefe5"] ;
188 -> 189 ;
190 [label="mse = -0.0\nsamples = 1\nvalue = 11.47", fillcolor="#fdf3ec"] ;
188 -> 190 ;
191 [label="age <= 10.5\nmse = 42.109\nsamples = 8\nvalue = 32.587", fillcolor="#f5d1b6"] ;
133 -> 191 ;
192 [label="fine_aggregate <= 705.6\nmse = 18.816\nsamples = 7\nvalue = 31.006", fillcolor="#f6d3bb"] ;
191 -> 192 ;
193 [label="mse = 2.831\nsamples = 3\nvalue = 35.15", fillcolor="#f5cdb0"] ;
192 -> 193 ;
194 [label="fine_aggregate <= 739.65\nmse = 10.392\nsamples = 4\nvalue = 28.243", fillcolor="#f7d8c2"] ;
192 -> 194 ;
195 [label="mse = 0.245\nsamples = 2\nvalue = 25.1", fillcolor="#f8ddca"] ;
194 -> 195 ;
196 [label="mse = 0.777\nsamples = 2\nvalue = 31.387", fillcolor="#f6d3ba"] ;
194 -> 196 ;
197 [label="mse = 0.0\nsamples = 1\nvalue = 48.4", fillcolor="#f0b78e"] ;
191 -> 197 ;
198 [label="cement <= 260.25\nmse = 109.987\nsamples = 165\nvalue = 34.544", fillcolor="#f5ceb1"] ;
132 -> 198 ;
199 [label="age <= 42.0\nmse = 94.072\nsamples = 85\nvalue = 30.004", fillcolor="#f6d5bd"] ;
198 -> 199 ;
200 [label="blast_furnace_slag <= 46.0\nmse = 64.125\nsamples = 58\nvalue = 26.435", fillcolor="#f8dbc6"] ;
199 -> 200 ;
201 [label="cement <= 211.2\nmse = 39.649\nsamples = 15\nvalue = 18.602", fillcolor="#fae8da"] ;
200 -> 201 ;
202 [label="superplasticizer <= 10.55\nmse = 6.731\nsamples = 7\nvalue = 13.05", fillcolor="#fcf1e8"] ;
201 -> 202 ;
203 [label="coarse_aggregate <= 934.6\nmse = 1.275\nsamples = 4\nvalue = 11.279", fillcolor="#fdf3ed"] ;
202 -> 203 ;
204 [label="mse = 0.142\nsamples = 2\nvalue = 10.007", fillcolor="#fdf6f0"] ;
203 -> 204 ;
205 [label="mse = 0.001\nsamples = 2\nvalue = 12.232", fillcolor="#fcf2ea"] ;
203 -> 205 ;
206 [label="mse = 1.178\nsamples = 3\nvalue = 16.15", fillcolor="#fbece0"] ;
202 -> 206 ;
207 [label="superplasticizer <= 5.05\nmse = 15.671\nsamples = 8\nvalue = 23.691", fillcolor="#f8dfcd"] ;
201 -> 207 ;
208 [label="fly_ash <= 47.3\nmse = 5.527\nsamples = 6\nvalue = 21.736", fillcolor="#f9e2d2"] ;
207 -> 208 ;
209 [label="mse = 0.901\nsamples = 3\nvalue = 19.786", fillcolor="#fae6d7"] ;
208 -> 209 ;
210 [label="mse = 0.62\nsamples = 3\nvalue = 24.172", fillcolor="#f8dfcc"] ;
208 -> 210 ;
211 [label="mse = 0.227\nsamples = 2\nvalue = 29.557", fillcolor="#f6d6be"] ;
207 -> 211 ;
212 [label="blast_furnace_slag <= 241.25\nmse = 44.633\nsamples = 43\nvalue = 29.084", fillcolor="#f7d7bf"] ;
200 -> 212 ;
213 [label="coarse_aggregate <= 921.1\nmse = 36.73\nsamples = 37\nvalue = 27.553", fillcolor="#f7d9c3"] ;
212 -> 213 ;
214 [label="superplasticizer <= 2.75\nmse = 22.788\nsamples = 14\nvalue = 30.576", fillcolor="#f6d4bc"] ;
213 -> 214 ;
215 [label="mse = 0.0\nsamples = 1\nvalue = 17.28", fillcolor="#fbeade"] ;
214 -> 215 ;
216 [label="fly_ash <= 174.5\nmse = 15.424\nsamples = 13\nvalue = 31.18", fillcolor="#f6d3ba"] ;
214 -> 216 ;
217 [label="coarse_aggregate <= 859.95\nmse = 8.882\nsamples = 10\nvalue = 32.622", fillcolor="#f5d1b6"] ;
216 -> 217 ;
218 [label="mse = 8.285\nsamples = 6\nvalue = 31.152", fillcolor="#f6d3ba"] ;
217 -> 218 ;
219 [label="mse = 2.241\nsamples = 4\nvalue = 34.721", fillcolor="#f5cdb1"] ;
217 -> 219 ;
220 [label="mse = 6.567\nsamples = 3\nvalue = 26.278", fillcolor="#f8dbc7"] ;
216 -> 220 ;
221 [label="blast_furnace_slag <= 107.85\nmse = 35.8\nsamples = 23\nvalue = 25.508", fillcolor="#f8dcc9"] ;
213 -> 221 ;
222 [label="mse = 0.0\nsamples = 1\nvalue = 45.71", fillcolor="#f1bc95"] ;
221 -> 222 ;
223 [label="coarse_aggregate <= 925.3\nmse = 24.143\nsamples = 22\nvalue = 24.896", fillcolor="#f8ddca"] ;
221 -> 223 ;
224 [label="mse = 0.0\nsamples = 1\nvalue = 16.5", fillcolor="#fbebe0"] ;
223 -> 224 ;
225 [label="coarse_aggregate <= 1036.8\nmse = 20.859\nsamples = 21\nvalue = 25.438", fillcolor="#f8dcc9"] ;
223 -> 225 ;
226 [label="mse = 17.415\nsamples = 16\nvalue = 26.539", fillcolor="#f8dbc6"] ;
225 -> 226 ;
227 [label="mse = 9.089\nsamples = 5\nvalue = 20.848", fillcolor="#f9e4d4"] ;
225 -> 227 ;
228 [label="coarse_aggregate <= 958.6\nmse = 10.503\nsamples = 6\nvalue = 37.017", fillcolor="#f4caab"] ;
212 -> 228 ;
229 [label="mse = 0.463\nsamples = 3\nvalue = 38.87", fillcolor="#f3c7a6"] ;
228 -> 229 ;
230 [label="mse = 13.489\nsamples = 3\nvalue = 34.794", fillcolor="#f5cdb1"] ;
228 -> 230 ;
231 [label="fine_aggregate <= 862.1\nmse = 75.145\nsamples = 27\nvalue = 37.387", fillcolor="#f4c9aa"] ;
199 -> 231 ;
232 [label="fine_aggregate <= 747.65\nmse = 28.586\nsamples = 21\nvalue = 41.821", fillcolor="#f2c29f"] ;
231 -> 232 ;
233 [label="cement <= 220.5\nmse = 30.512\nsamples = 6\nvalue = 46.368", fillcolor="#f1ba93"] ;
232 -> 233 ;
234 [label="cement <= 172.4\nmse = 15.966\nsamples = 5\nvalue = 48.641", fillcolor="#f0b78d"] ;
233 -> 234 ;
235 [label="mse = 0.0\nsamples = 1\nvalue = 43.57", fillcolor="#f2bf9a"] ;
234 -> 235 ;
236 [label="age <= 227.5\nmse = 13.627\nsamples = 4\nvalue = 49.487", fillcolor="#f0b58b"] ;
234 -> 236 ;
237 [label="mse = 12.112\nsamples = 3\nvalue = 48.646", fillcolor="#f0b78d"] ;
236 -> 237 ;
238 [label="mse = -0.0\nsamples = 1\nvalue = 53.69", fillcolor="#eeaf81"] ;
236 -> 238 ;
239 [label="mse = 0.0\nsamples = 1\nvalue = 38.41", fillcolor="#f4c7a8"] ;
233 -> 239 ;
240 [label="superplasticizer <= 5.75\nmse = 16.579\nsamples = 15\nvalue = 40.042", fillcolor="#f3c5a3"] ;
232 -> 240 ;
241 [label="cement <= 234.9\nmse = 11.888\nsamples = 11\nvalue = 38.592", fillcolor="#f3c7a7"] ;
240 -> 241 ;
242 [label="blast_furnace_slag <= 66.2\nmse = 6.459\nsamples = 8\nvalue = 37.435", fillcolor="#f4c9aa"] ;
241 -> 242 ;
243 [label="superplasticizer <= 5.15\nmse = 4.3\nsamples = 4\nvalue = 35.192", fillcolor="#f5cdb0"] ;
242 -> 243 ;
244 [label="mse = 0.474\nsamples = 3\nvalue = 34.308", fillcolor="#f5ceb2"] ;
243 -> 244 ;
245 [label="mse = -0.0\nsamples = 1\nvalue = 39.61", fillcolor="#f3c5a5"] ;
243 -> 245 ;
246 [label="fine_aggregate <= 816.2\nmse = 0.296\nsamples = 4\nvalue = 39.359", fillcolor="#f3c6a5"] ;
242 -> 246 ;
247 [label="mse = 0.023\nsamples = 3\nvalue = 39.573", fillcolor="#f3c5a5"] ;
246 -> 247 ;
248 [label="mse = 0.0\nsamples = 1\nvalue = 38.07", fillcolor="#f4c8a8"] ;
246 -> 248 ;
249 [label="mse = 11.043\nsamples = 3\nvalue = 42.352", fillcolor="#f2c19e"] ;
241 -> 249 ;
250 [label="fine_aggregate <= 756.0\nmse = 7.038\nsamples = 4\nvalue = 44.15", fillcolor="#f2be99"] ;
240 -> 250 ;
251 [label="mse = 0.0\nsamples = 1\nvalue = 39.27", fillcolor="#f3c6a5"] ;
250 -> 251 ;
252 [label="mse = 2.73\nsamples = 3\nvalue = 45.126", fillcolor="#f1bc96"] ;
250 -> 252 ;
253 [label="water <= 196.0\nmse = 7.068\nsamples = 6\nvalue = 25.563", fillcolor="#f8dcc8"] ;
231 -> 253 ;
254 [label="water <= 193.5\nmse = 2.593\nsamples = 4\nvalue = 23.99", fillcolor="#f8dfcc"] ;
253 -> 254 ;
255 [label="mse = 1.608\nsamples = 3\nvalue = 24.67", fillcolor="#f8decb"] ;
254 -> 255 ;
256 [label="mse = -0.0\nsamples = 1\nvalue = 21.95", fillcolor="#f9e2d2"] ;
254 -> 256 ;
257 [label="mse = 1.166\nsamples = 2\nvalue = 28.71", fillcolor="#f7d7c0"] ;
253 -> 257 ;
258 [label="blast_furnace_slag <= 11.0\nmse = 82.106\nsamples = 80\nvalue = 39.333", fillcolor="#f3c6a5"] ;
198 -> 258 ;
259 [label="fine_aggregate <= 679.5\nmse = 62.819\nsamples = 48\nvalue = 36.107", fillcolor="#f4cbad"] ;
258 -> 259 ;
260 [label="water <= 194.5\nmse = 31.654\nsamples = 7\nvalue = 49.752", fillcolor="#f0b58b"] ;
259 -> 260 ;
261 [label="mse = 0.0\nsamples = 1\nvalue = 58.78", fillcolor="#eda674"] ;
260 -> 261 ;
262 [label="fine_aggregate <= 641.5\nmse = 16.55\nsamples = 6\nvalue = 47.746", fillcolor="#f0b890"] ;
260 -> 262 ;
263 [label="age <= 59.0\nmse = 11.114\nsamples = 4\nvalue = 46.243", fillcolor="#f1bb94"] ;
262 -> 263 ;
264 [label="mse = 0.0\nsamples = 1\nvalue = 44.09", fillcolor="#f2be99"] ;
263 -> 264 ;
265 [label="mse = 13.367\nsamples = 3\nvalue = 47.858", fillcolor="#f0b88f"] ;
263 -> 265 ;
266 [label="mse = 0.009\nsamples = 2\nvalue = 53.005", fillcolor="#efb082"] ;
262 -> 266 ;
267 [label="water <= 194.5\nmse = 32.352\nsamples = 41\nvalue = 33.867", fillcolor="#f5cfb3"] ;
259 -> 267 ;
268 [label="superplasticizer <= 1.5\nmse = 25.429\nsamples = 29\nvalue = 35.521", fillcolor="#f4ccaf"] ;
267 -> 268 ;
269 [label="cement <= 398.5\nmse = 21.613\nsamples = 23\nvalue = 34.389", fillcolor="#f5ceb2"] ;
268 -> 269 ;
270 [label="age <= 59.0\nmse = 17.485\nsamples = 22\nvalue = 33.842", fillcolor="#f5cfb3"] ;
269 -> 270 ;
271 [label="cement <= 381.7\nmse = 15.149\nsamples = 14\nvalue = 31.558", fillcolor="#f6d3b9"] ;
270 -> 271 ;
272 [label="mse = 8.126\nsamples = 10\nvalue = 30.072", fillcolor="#f6d5bd"] ;
271 -> 272 ;
273 [label="mse = 4.967\nsamples = 4\nvalue = 36.758", fillcolor="#f4caac"] ;
271 -> 273 ;
274 [label="cement <= 308.5\nmse = 7.642\nsamples = 8\nvalue = 36.411", fillcolor="#f4cbad"] ;
270 -> 274 ;
275 [label="mse = 0.944\nsamples = 3\nvalue = 33.148", fillcolor="#f5d0b5"] ;
274 -> 275 ;
276 [label="mse = 1.44\nsamples = 5\nvalue = 38.369", fillcolor="#f4c7a8"] ;
274 -> 276 ;
277 [label="mse = 0.0\nsamples = 1\nvalue = 43.7", fillcolor="#f2bf9a"] ;
269 -> 277 ;
278 [label="superplasticizer <= 6.5\nmse = 10.893\nsamples = 6\nvalue = 40.615", fillcolor="#f3c4a2"] ;
268 -> 278 ;
279 [label="mse = 1.238\nsamples = 3\nvalue = 43.752", fillcolor="#f2bf9a"] ;
278 -> 279 ;
280 [label="mse = 0.86\nsamples = 3\nvalue = 37.478", fillcolor="#f4c9aa"] ;
278 -> 280 ;
281 [label="fly_ash <= 116.5\nmse = 30.35\nsamples = 12\nvalue = 30.703", fillcolor="#f6d4bb"] ;
267 -> 281 ;
282 [label="superplasticizer <= 5.0\nmse = 14.427\nsamples = 10\nvalue = 28.733", fillcolor="#f7d7c0"] ;
281 -> 282 ;
283 [label="water <= 200.0\nmse = 11.612\nsamples = 6\nvalue = 26.034", fillcolor="#f8dbc7"] ;
282 -> 283 ;
284 [label="mse = 0.0\nsamples = 1\nvalue = 32.04", fillcolor="#f6d2b8"] ;
283 -> 284 ;
285 [label="age <= 104.0\nmse = 8.449\nsamples = 5\nvalue = 25.367", fillcolor="#f8ddc9"] ;
283 -> 285 ;
286 [label="mse = 1.315\nsamples = 3\nvalue = 24.12", fillcolor="#f8dfcc"] ;
285 -> 286 ;
287 [label="mse = 8.94\nsamples = 2\nvalue = 29.73", fillcolor="#f6d5be"] ;
285 -> 287 ;
288 [label="fine_aggregate <= 733.5\nmse = 0.466\nsamples = 4\nvalue = 31.732", fillcolor="#f6d2b9"] ;
282 -> 288 ;
289 [label="mse = 0.0\nsamples = 1\nvalue = 30.12", fillcolor="#f6d5bd"] ;
288 -> 289 ;
290 [label="mse = 0.158\nsamples = 3\nvalue = 31.934", fillcolor="#f6d2b8"] ;
288 -> 290 ;
291 [label="mse = -0.0\nsamples = 2\nvalue = 40.06", fillcolor="#f3c5a3"] ;
281 -> 291 ;
292 [label="coarse_aggregate <= 859.65\nmse = 70.651\nsamples = 32\nvalue = 44.364", fillcolor="#f2be98"] ;
258 -> 292 ;
293 [label="superplasticizer <= 7.0\nmse = 116.087\nsamples = 5\nvalue = 56.621", fillcolor="#edaa79"] ;
292 -> 293 ;
294 [label="mse = 0.0\nsamples = 1\nvalue = 41.54", fillcolor="#f2c2a0"] ;
293 -> 294 ;
295 [label="age <= 42.0\nmse = 35.15\nsamples = 4\nvalue = 62.654", fillcolor="#eba06a"] ;
293 -> 295 ;
296 [label="mse = 6.576\nsamples = 2\nvalue = 58.423", fillcolor="#eda775"] ;
295 -> 296 ;
297 [label="mse = 10.89\nsamples = 2\nvalue = 69.0", fillcolor="#e9965a"] ;
295 -> 297 ;
298 [label="blast_furnace_slag <= 138.45\nmse = 34.815\nsamples = 27\nvalue = 42.369", fillcolor="#f2c19e"] ;
292 -> 298 ;
299 [label="cement <= 361.0\nmse = 25.625\nsamples = 15\nvalue = 45.49", fillcolor="#f1bc96"] ;
298 -> 299 ;
300 [label="superplasticizer <= 6.5\nmse = 28.516\nsamples = 10\nvalue = 48.183", fillcolor="#f0b88f"] ;
299 -> 300 ;
301 [label="age <= 227.5\nmse = 12.582\nsamples = 7\nvalue = 51.111", fillcolor="#efb387"] ;
300 -> 301 ;
302 [label="fly_ash <= 53.5\nmse = 6.165\nsamples = 4\nvalue = 48.916", fillcolor="#f0b68d"] ;
301 -> 302 ;
303 [label="mse = 1.082\nsamples = 3\nvalue = 47.765", fillcolor="#f0b890"] ;
302 -> 303 ;
304 [label="mse = -0.0\nsamples = 1\nvalue = 53.52", fillcolor="#eeaf81"] ;
302 -> 304 ;
305 [label="mse = 1.859\nsamples = 3\nvalue = 54.77", fillcolor="#eead7e"] ;
301 -> 305 ;
306 [label="mse = 8.948\nsamples = 3\nvalue = 42.328", fillcolor="#f2c19e"] ;
300 -> 306 ;
307 [label="age <= 317.5\nmse = 2.998\nsamples = 5\nvalue = 42.257", fillcolor="#f2c19e"] ;
299 -> 307 ;
308 [label="mse = 1.832\nsamples = 3\nvalue = 40.814", fillcolor="#f3c3a1"] ;
307 -> 308 ;
309 [label="mse = 0.0\nsamples = 2\nvalue = 43.7", fillcolor="#f2bf9a"] ;
307 -> 309 ;
310 [label="superplasticizer <= 7.1\nmse = 23.548\nsamples = 12\nvalue = 39.099", fillcolor="#f3c6a6"] ;
298 -> 310 ;
311 [label="age <= 104.0\nmse = 12.922\nsamples = 8\nvalue = 36.662", fillcolor="#f4caac"] ;
310 -> 311 ;
312 [label="blast_furnace_slag <= 196.3\nmse = 6.713\nsamples = 5\nvalue = 34.335", fillcolor="#f5ceb2"] ;
311 -> 312 ;
313 [label="water <= 199.6\nmse = 0.482\nsamples = 4\nvalue = 32.88", fillcolor="#f5d0b6"] ;
312 -> 313 ;
314 [label="mse = 0.0\nsamples = 1\nvalue = 31.38", fillcolor="#f6d3ba"] ;
313 -> 314 ;
315 [label="mse = 0.038\nsamples = 3\nvalue = 33.18", fillcolor="#f5d0b5"] ;
313 -> 315 ;
316 [label="mse = 0.0\nsamples = 1\nvalue = 38.7", fillcolor="#f3c7a7"] ;
312 -> 316 ;
317 [label="mse = 0.326\nsamples = 3\nvalue = 40.386", fillcolor="#f3c4a3"] ;
311 -> 317 ;
318 [label="water <= 178.7\nmse = 15.486\nsamples = 4\nvalue = 43.059", fillcolor="#f2c09c"] ;
310 -> 318 ;
319 [label="mse = 0.003\nsamples = 2\nvalue = 40.97", fillcolor="#f3c3a1"] ;
318 -> 319 ;
320 [label="mse = 9.579\nsamples = 2\nvalue = 49.325", fillcolor="#f0b68c"] ;
318 -> 320 ;
}