digraph Tree {
node [shape=box, style="filled", color="black"] ;
0 [label="age <= 21.0\nmse = 269.789\nsamples = 391\nvalue = 35.621", fillcolor="#f5ceb1"] ;
1 [label="superplasticizer <= 8.35\nmse = 126.777\nsamples = 121\nvalue = 23.358", fillcolor="#f9e2d1"] ;
0 -> 1 [labeldistance=2.5, labelangle=45, headlabel="True"] ;
2 [label="cement <= 365.0\nmse = 59.773\nsamples = 82\nvalue = 17.959", fillcolor="#fbebe0"] ;
1 -> 2 ;
3 [label="age <= 10.5\nmse = 36.159\nsamples = 73\nvalue = 16.49", fillcolor="#fbede3"] ;
2 -> 3 ;
4 [label="cement <= 224.4\nmse = 24.654\nsamples = 60\nvalue = 14.912", fillcolor="#fcf0e7"] ;
3 -> 4 ;
5 [label="cement <= 146.35\nmse = 17.539\nsamples = 23\nvalue = 11.546", fillcolor="#fdf6f0"] ;
4 -> 5 ;
6 [label="mse = 4.448\nsamples = 3\nvalue = 5.902", fillcolor="#ffffff"] ;
5 -> 6 ;
7 [label="blast_furnace_slag <= 263.1\nmse = 13.528\nsamples = 20\nvalue = 12.486", fillcolor="#fdf4ee"] ;
5 -> 7 ;
8 [label="coarse_aggregate <= 1057.15\nmse = 10.939\nsamples = 17\nvalue = 11.967", fillcolor="#fdf5ef"] ;
7 -> 8 ;
9 [label="superplasticizer <= 7.85\nmse = 10.032\nsamples = 14\nvalue = 12.537", fillcolor="#fdf4ee"] ;
8 -> 9 ;
10 [label="fine_aggregate <= 739.3\nmse = 8.237\nsamples = 13\nvalue = 12.224", fillcolor="#fdf4ee"] ;
9 -> 10 ;
11 [label="mse = 0.0\nsamples = 1\nvalue = 9.62", fillcolor="#fef9f5"] ;
10 -> 11 ;
12 [label="mse = 8.226\nsamples = 12\nvalue = 12.802", fillcolor="#fdf4ed"] ;
10 -> 12 ;
13 [label="mse = -0.0\nsamples = 1\nvalue = 19.42", fillcolor="#fae9dc"] ;
9 -> 13 ;
14 [label="mse = 3.584\nsamples = 3\nvalue = 8.695", fillcolor="#fefaf8"] ;
8 -> 14 ;
15 [label="mse = 12.587\nsamples = 3\nvalue = 17.157", fillcolor="#fbece2"] ;
7 -> 15 ;
16 [label="fine_aggregate <= 862.1\nmse = 18.166\nsamples = 37\nvalue = 16.909", fillcolor="#fbede2"] ;
4 -> 16 ;
17 [label="coarse_aggregate <= 956.35\nmse = 14.372\nsamples = 33\nvalue = 17.586", fillcolor="#fbece0"] ;
16 -> 17 ;
18 [label="age <= 5.0\nmse = 14.019\nsamples = 7\nvalue = 21.856", fillcolor="#fae4d5"] ;
17 -> 18 ;
19 [label="mse = 7.613\nsamples = 3\nvalue = 17.342", fillcolor="#fbece1"] ;
18 -> 19 ;
20 [label="fine_aggregate <= 634.15\nmse = 1.944\nsamples = 4\nvalue = 24.112", fillcolor="#f9e1cf"] ;
18 -> 20 ;
21 [label="mse = 0.0\nsamples = 1\nvalue = 26.26", fillcolor="#f8ddca"] ;
20 -> 21 ;
22 [label="mse = 0.543\nsamples = 3\nvalue = 23.397", fillcolor="#f9e2d1"] ;
20 -> 22 ;
23 [label="age <= 5.0\nmse = 7.776\nsamples = 26\nvalue = 16.367", fillcolor="#fbeee4"] ;
17 -> 23 ;
24 [label="coarse_aggregate <= 1028.25\nmse = 2.008\nsamples = 10\nvalue = 14.219", fillcolor="#fcf1e9"] ;
23 -> 24 ;
25 [label="coarse_aggregate <= 995.0\nmse = 0.4\nsamples = 6\nvalue = 13.399", fillcolor="#fcf3eb"] ;
24 -> 25 ;
26 [label="mse = 0.054\nsamples = 4\nvalue = 13.724", fillcolor="#fcf2eb"] ;
25 -> 26 ;
27 [label="mse = 0.507\nsamples = 2\nvalue = 12.857", fillcolor="#fdf3ed"] ;
25 -> 27 ;
28 [label="fine_aggregate <= 756.0\nmse = 2.2\nsamples = 4\nvalue = 15.156", fillcolor="#fcf0e7"] ;
24 -> 28 ;
29 [label="mse = 0.0\nsamples = 1\nvalue = 11.98", fillcolor="#fdf5ef"] ;
28 -> 29 ;
30 [label="mse = 0.606\nsamples = 3\nvalue = 15.685", fillcolor="#fcefe5"] ;
28 -> 30 ;
31 [label="coarse_aggregate <= 1067.5\nmse = 6.994\nsamples = 16\nvalue = 17.56", fillcolor="#fbece1"] ;
23 -> 31 ;
32 [label="fine_aggregate <= 818.0\nmse = 2.695\nsamples = 11\nvalue = 18.842", fillcolor="#fbeadd"] ;
31 -> 32 ;
33 [label="mse = 1.935\nsamples = 9\nvalue = 19.145", fillcolor="#fae9dc"] ;
32 -> 33 ;
34 [label="mse = 1.266\nsamples = 2\nvalue = 16.115", fillcolor="#fbeee4"] ;
32 -> 34 ;
35 [label="fine_aggregate <= 784.15\nmse = 1.164\nsamples = 5\nvalue = 13.897", fillcolor="#fcf2ea"] ;
31 -> 35 ;
36 [label="mse = 0.222\nsamples = 4\nvalue = 14.3", fillcolor="#fcf1e9"] ;
35 -> 36 ;
37 [label="mse = -0.0\nsamples = 1\nvalue = 11.48", fillcolor="#fdf6f0"] ;
35 -> 37 ;
38 [label="age <= 5.0\nmse = 0.593\nsamples = 4\nvalue = 9.588", fillcolor="#fef9f5"] ;
16 -> 38 ;
39 [label="mse = 0.308\nsamples = 2\nvalue = 8.755", fillcolor="#fefaf8"] ;
38 -> 39 ;
40 [label="mse = 0.012\nsamples = 2\nvalue = 10.143", fillcolor="#fef8f4"] ;
38 -> 40 ;
41 [label="water <= 165.2\nmse = 26.574\nsamples = 13\nvalue = 23.556", fillcolor="#f9e2d1"] ;
3 -> 41 ;
42 [label="mse = 0.003\nsamples = 2\nvalue = 32.973", fillcolor="#f6d2b8"] ;
41 -> 42 ;
43 [label="fly_ash <= 60.1\nmse = 13.759\nsamples = 11\nvalue = 21.987", fillcolor="#f9e4d5"] ;
41 -> 43 ;
44 [label="fine_aggregate <= 783.25\nmse = 17.667\nsamples = 4\nvalue = 18.637", fillcolor="#fbeade"] ;
43 -> 44 ;
45 [label="mse = 0.0\nsamples = 1\nvalue = 27.04", fillcolor="#f8dcc8"] ;
44 -> 45 ;
46 [label="mse = 4.252\nsamples = 3\nvalue = 16.956", fillcolor="#fbede2"] ;
44 -> 46 ;
47 [label="water <= 191.1\nmse = 3.389\nsamples = 7\nvalue = 23.662", fillcolor="#f9e1d1"] ;
43 -> 47 ;
48 [label="fine_aggregate <= 903.85\nmse = 0.081\nsamples = 5\nvalue = 24.711", fillcolor="#f9e0ce"] ;
47 -> 48 ;
49 [label="fly_ash <= 96.2\nmse = 0.064\nsamples = 4\nvalue = 24.572", fillcolor="#f9e0ce"] ;
48 -> 49 ;
50 [label="mse = 0.0\nsamples = 1\nvalue = 24.92", fillcolor="#f8dfcd"] ;
49 -> 50 ;
51 [label="mse = 0.005\nsamples = 3\nvalue = 24.398", fillcolor="#f9e0cf"] ;
49 -> 51 ;
52 [label="mse = -0.0\nsamples = 1\nvalue = 24.99", fillcolor="#f8dfcd"] ;
48 -> 52 ;
53 [label="mse = 0.094\nsamples = 2\nvalue = 20.513", fillcolor="#fae7d9"] ;
47 -> 53 ;
54 [label="cement <= 511.0\nmse = 80.746\nsamples = 9\nvalue = 30.953", fillcolor="#f6d5be"] ;
2 -> 54 ;
55 [label="fine_aggregate <= 662.6\nmse = 21.668\nsamples = 7\nvalue = 27.589", fillcolor="#f8dbc6"] ;
54 -> 55 ;
56 [label="mse = 0.038\nsamples = 2\nvalue = 33.015", fillcolor="#f6d2b8"] ;
55 -> 56 ;
57 [label="age <= 10.5\nmse = 7.591\nsamples = 5\nvalue = 24.489", fillcolor="#f9e0ce"] ;
55 -> 57 ;
58 [label="fine_aggregate <= 748.65\nmse = 4.034\nsamples = 4\nvalue = 23.116", fillcolor="#f9e2d2"] ;
57 -> 58 ;
59 [label="mse = 0.027\nsamples = 3\nvalue = 24.118", fillcolor="#f9e1cf"] ;
58 -> 59 ;
60 [label="mse = 0.0\nsamples = 1\nvalue = 19.11", fillcolor="#fae9dd"] ;
58 -> 60 ;
61 [label="mse = -0.0\nsamples = 1\nvalue = 27.92", fillcolor="#f7dac6"] ;
57 -> 61 ;
62 [label="mse = 1.113\nsamples = 2\nvalue = 49.455", fillcolor="#f0b78d"] ;
54 -> 62 ;
63 [label="fly_ash <= 99.35\nmse = 94.762\nsamples = 39\nvalue = 33.52", fillcolor="#f6d1b7"] ;
1 -> 63 ;
64 [label="age <= 5.0\nmse = 86.724\nsamples = 27\nvalue = 37.127", fillcolor="#f4cbad"] ;
63 -> 64 ;
65 [label="cement <= 343.15\nmse = 43.107\nsamples = 15\nvalue = 31.804", fillcolor="#f6d4bb"] ;
64 -> 65 ;
66 [label="fine_aggregate <= 820.85\nmse = 8.224\nsamples = 5\nvalue = 24.515", fillcolor="#f9e0ce"] ;
65 -> 66 ;
67 [label="mse = 1.156\nsamples = 2\nvalue = 29.375", fillcolor="#f7d8c2"] ;
66 -> 67 ;
68 [label="mse = 0.083\nsamples = 3\nvalue = 22.895", fillcolor="#f9e3d3"] ;
66 -> 68 ;
69 [label="water <= 132.2\nmse = 11.761\nsamples = 10\nvalue = 36.289", fillcolor="#f5cdb0"] ;
65 -> 69 ;
70 [label="mse = 0.0\nsamples = 1\nvalue = 29.0", fillcolor="#f7d9c3"] ;
69 -> 70 ;
71 [label="water <= 150.45\nmse = 7.944\nsamples = 9\nvalue = 36.897", fillcolor="#f4ccae"] ;
69 -> 71 ;
72 [label="blast_furnace_slag <= 105.95\nmse = 0.185\nsamples = 4\nvalue = 40.8", fillcolor="#f3c5a4"] ;
71 -> 72 ;
73 [label="mse = 0.01\nsamples = 2\nvalue = 41.2", fillcolor="#f3c4a3"] ;
72 -> 73 ;
74 [label="mse = 0.04\nsamples = 2\nvalue = 40.4", fillcolor="#f3c6a5"] ;
72 -> 74 ;
75 [label="superplasticizer <= 14.05\nmse = 0.396\nsamples = 5\nvalue = 34.945", fillcolor="#f5cfb3"] ;
71 -> 75 ;
76 [label="blast_furnace_slag <= 22.0\nmse = 0.063\nsamples = 4\nvalue = 35.166", fillcolor="#f5ceb3"] ;
75 -> 76 ;
77 [label="mse = 0.0\nsamples = 1\nvalue = 34.77", fillcolor="#f5cfb4"] ;
76 -> 77 ;
78 [label="mse = 0.001\nsamples = 3\nvalue = 35.324", fillcolor="#f5ceb2"] ;
76 -> 78 ;
79 [label="mse = -0.0\nsamples = 1\nvalue = 33.4", fillcolor="#f6d1b7"] ;
75 -> 79 ;
80 [label="cement <= 406.8\nmse = 79.567\nsamples = 12\nvalue = 41.598", fillcolor="#f3c4a2"] ;
64 -> 80 ;
81 [label="superplasticizer <= 13.0\nmse = 63.336\nsamples = 9\nvalue = 39.407", fillcolor="#f4c7a8"] ;
80 -> 81 ;
82 [label="fly_ash <= 96.8\nmse = 74.666\nsamples = 6\nvalue = 38.068", fillcolor="#f4caab"] ;
81 -> 82 ;
83 [label="blast_furnace_slag <= 143.05\nmse = 87.746\nsamples = 5\nvalue = 37.185", fillcolor="#f4cbad"] ;
82 -> 83 ;
84 [label="mse = 0.013\nsamples = 2\nvalue = 34.762", fillcolor="#f5cfb4"] ;
83 -> 84 ;
85 [label="mse = 136.615\nsamples = 3\nvalue = 38.7", fillcolor="#f4c9a9"] ;
83 -> 85 ;
86 [label="mse = -0.0\nsamples = 1\nvalue = 41.89", fillcolor="#f3c3a1"] ;
82 -> 86 ;
87 [label="mse = 2.961\nsamples = 3\nvalue = 43.694", fillcolor="#f2c09c"] ;
81 -> 87 ;
88 [label="mse = 7.225\nsamples = 3\nvalue = 53.103", fillcolor="#efb184"] ;
80 -> 88 ;
89 [label="fine_aggregate <= 783.4\nmse = 27.508\nsamples = 12\nvalue = 25.98", fillcolor="#f8decb"] ;
63 -> 89 ;
90 [label="coarse_aggregate <= 852.0\nmse = 10.719\nsamples = 4\nvalue = 33.602", fillcolor="#f6d1b7"] ;
89 -> 90 ;
91 [label="mse = 0.0\nsamples = 1\nvalue = 39.0", fillcolor="#f4c8a9"] ;
90 -> 91 ;
92 [label="mse = 5.869\nsamples = 3\nvalue = 32.522", fillcolor="#f6d3ba"] ;
90 -> 92 ;
93 [label="water <= 164.25\nmse = 3.848\nsamples = 8\nvalue = 23.121", fillcolor="#f9e2d2"] ;
89 -> 93 ;
94 [label="superplasticizer <= 12.2\nmse = 2.161\nsamples = 7\nvalue = 23.65", fillcolor="#f9e2d1"] ;
93 -> 94 ;
95 [label="fly_ash <= 124.2\nmse = 1.176\nsamples = 6\nvalue = 24.088", fillcolor="#f9e1d0"] ;
94 -> 95 ;
96 [label="mse = 0.087\nsamples = 2\nvalue = 25.54", fillcolor="#f8decc"] ;
95 -> 96 ;
97 [label="water <= 160.1\nmse = 0.141\nsamples = 4\nvalue = 23.362", fillcolor="#f9e2d1"] ;
95 -> 97 ;
98 [label="mse = 0.004\nsamples = 3\nvalue = 23.577", fillcolor="#f9e2d1"] ;
97 -> 98 ;
99 [label="mse = 0.0\nsamples = 1\nvalue = 22.72", fillcolor="#f9e3d3"] ;
97 -> 99 ;
100 [label="mse = 0.0\nsamples = 1\nvalue = 21.02", fillcolor="#fae6d8"] ;
94 -> 100 ;
101 [label="mse = -0.0\nsamples = 1\nvalue = 19.42", fillcolor="#fae9dc"] ;
93 -> 101 ;
102 [label="water <= 175.65\nmse = 233.92\nsamples = 270\nvalue = 41.317", fillcolor="#f3c4a3"] ;
0 -> 102 [labeldistance=2.5, labelangle=-45, headlabel="False"] ;
103 [label="cement <= 252.05\nmse = 216.888\nsamples = 102\nvalue = 53.233", fillcolor="#efb083"] ;
102 -> 103 ;
104 [label="age <= 42.0\nmse = 123.599\nsamples = 40\nvalue = 40.142", fillcolor="#f3c6a6"] ;
103 -> 104 ;
105 [label="fly_ash <= 174.85\nmse = 73.771\nsamples = 19\nvalue = 31.974", fillcolor="#f6d4bb"] ;
104 -> 105 ;
106 [label="fine_aggregate <= 778.55\nmse = 43.472\nsamples = 16\nvalue = 34.12", fillcolor="#f5d0b5"] ;
105 -> 106 ;
107 [label="coarse_aggregate <= 979.4\nmse = 27.835\nsamples = 8\nvalue = 40.106", fillcolor="#f3c6a6"] ;
106 -> 107 ;
108 [label="mse = 0.0\nsamples = 1\nvalue = 27.68", fillcolor="#f8dbc6"] ;
107 -> 108 ;
109 [label="blast_furnace_slag <= 129.2\nmse = 11.865\nsamples = 7\nvalue = 41.487", fillcolor="#f3c4a2"] ;
107 -> 109 ;
110 [label="mse = 6.649\nsamples = 3\nvalue = 44.605", fillcolor="#f2bf9a"] ;
109 -> 110 ;
111 [label="fine_aggregate <= 681.5\nmse = 2.035\nsamples = 4\nvalue = 38.992", fillcolor="#f4c8a9"] ;
109 -> 111 ;
112 [label="mse = 0.0\nsamples = 2\nvalue = 37.43", fillcolor="#f4cbad"] ;
111 -> 112 ;
113 [label="mse = 0.681\nsamples = 2\nvalue = 40.033", fillcolor="#f3c6a6"] ;
111 -> 113 ;
114 [label="fine_aggregate <= 904.75\nmse = 6.742\nsamples = 8\nvalue = 29.516", fillcolor="#f7d8c1"] ;
106 -> 114 ;
115 [label="cement <= 166.95\nmse = 3.144\nsamples = 7\nvalue = 30.655", fillcolor="#f7d6be"] ;
114 -> 115 ;
116 [label="mse = 0.0\nsamples = 1\nvalue = 26.2", fillcolor="#f8ddca"] ;
115 -> 116 ;
117 [label="fly_ash <= 148.35\nmse = 1.044\nsamples = 6\nvalue = 31.15", fillcolor="#f6d5bd"] ;
115 -> 117 ;
118 [label="superplasticizer <= 11.05\nmse = 0.267\nsamples = 5\nvalue = 30.832", fillcolor="#f6d6be"] ;
117 -> 118 ;
119 [label="mse = 0.045\nsamples = 3\nvalue = 31.287", fillcolor="#f6d5bd"] ;
118 -> 119 ;
120 [label="mse = 0.074\nsamples = 2\nvalue = 30.377", fillcolor="#f7d6bf"] ;
118 -> 120 ;
121 [label="mse = -0.0\nsamples = 1\nvalue = 33.69", fillcolor="#f5d1b6"] ;
117 -> 121 ;
122 [label="mse = 0.0\nsamples = 1\nvalue = 25.72", fillcolor="#f8decb"] ;
114 -> 122 ;
123 [label="mse = 0.005\nsamples = 3\nvalue = 15.52", fillcolor="#fcefe6"] ;
105 -> 123 ;
124 [label="fine_aggregate <= 780.65\nmse = 50.398\nsamples = 21\nvalue = 47.726", fillcolor="#f1ba92"] ;
104 -> 124 ;
125 [label="water <= 157.4\nmse = 16.433\nsamples = 10\nvalue = 53.512", fillcolor="#efb083"] ;
124 -> 125 ;
126 [label="mse = 1.337\nsamples = 2\nvalue = 58.632", fillcolor="#eda775"] ;
125 -> 126 ;
127 [label="coarse_aggregate <= 1050.0\nmse = 6.312\nsamples = 8\nvalue = 51.237", fillcolor="#efb489"] ;
125 -> 127 ;
128 [label="cement <= 167.2\nmse = 3.005\nsamples = 7\nvalue = 51.911", fillcolor="#efb387"] ;
127 -> 128 ;
129 [label="mse = 0.608\nsamples = 2\nvalue = 54.24", fillcolor="#eeaf81"] ;
128 -> 129 ;
130 [label="blast_furnace_slag <= 46.7\nmse = 1.394\nsamples = 5\nvalue = 51.135", fillcolor="#efb489"] ;
128 -> 130 ;
131 [label="mse = 0.723\nsamples = 2\nvalue = 52.11", fillcolor="#efb286"] ;
130 -> 131 ;
132 [label="mse = 1.017\nsamples = 3\nvalue = 50.648", fillcolor="#f0b58a"] ;
130 -> 132 ;
133 [label="mse = -0.0\nsamples = 1\nvalue = 45.84", fillcolor="#f1bd97"] ;
127 -> 133 ;
134 [label="coarse_aggregate <= 1006.2\nmse = 25.676\nsamples = 11\nvalue = 42.712", fillcolor="#f2c29f"] ;
124 -> 134 ;
135 [label="fly_ash <= 99.35\nmse = 9.406\nsamples = 4\nvalue = 47.093", fillcolor="#f1bb93"] ;
134 -> 135 ;
136 [label="mse = 0.0\nsamples = 1\nvalue = 51.06", fillcolor="#f0b489"] ;
135 -> 136 ;
137 [label="mse = 2.309\nsamples = 3\nvalue = 45.11", fillcolor="#f2be99"] ;
135 -> 137 ;
138 [label="coarse_aggregate <= 1007.1\nmse = 15.194\nsamples = 7\nvalue = 39.791", fillcolor="#f3c7a7"] ;
134 -> 138 ;
139 [label="mse = 2.856\nsamples = 2\nvalue = 35.65", fillcolor="#f5ceb1"] ;
138 -> 139 ;
140 [label="superplasticizer <= 9.3\nmse = 12.419\nsamples = 5\nvalue = 40.974", fillcolor="#f3c5a3"] ;
138 -> 140 ;
141 [label="mse = 5.26\nsamples = 3\nvalue = 44.623", fillcolor="#f2bf9a"] ;
140 -> 141 ;
142 [label="mse = 0.312\nsamples = 2\nvalue = 38.238", fillcolor="#f4c9ab"] ;
140 -> 142 ;
143 [label="cement <= 313.15\nmse = 123.32\nsamples = 62\nvalue = 60.373", fillcolor="#eca571"] ;
103 -> 143 ;
144 [label="cement <= 288.35\nmse = 56.87\nsamples = 17\nvalue = 52.669", fillcolor="#efb185"] ;
143 -> 144 ;
145 [label="cement <= 285.65\nmse = 55.678\nsamples = 9\nvalue = 56.896", fillcolor="#eeaa7a"] ;
144 -> 145 ;
146 [label="age <= 42.0\nmse = 31.217\nsamples = 8\nvalue = 55.569", fillcolor="#eeac7d"] ;
145 -> 146 ;
147 [label="mse = 20.188\nsamples = 3\nvalue = 50.722", fillcolor="#f0b58a"] ;
146 -> 147 ;
148 [label="fly_ash <= 60.95\nmse = 12.465\nsamples = 5\nvalue = 58.8", fillcolor="#eda775"] ;
146 -> 148 ;
149 [label="mse = 0.0\nsamples = 1\nvalue = 66.95", fillcolor="#ea9a60"] ;
148 -> 149 ;
150 [label="age <= 78.0\nmse = 4.683\nsamples = 4\nvalue = 57.781", fillcolor="#eda978"] ;
148 -> 150 ;
151 [label="mse = -0.0\nsamples = 1\nvalue = 55.83", fillcolor="#eeac7d"] ;
150 -> 151 ;
152 [label="mse = 3.837\nsamples = 3\nvalue = 58.952", fillcolor="#eda775"] ;
150 -> 152 ;
153 [label="mse = 0.0\nsamples = 1\nvalue = 76.8", fillcolor="#e78946"] ;
145 -> 153 ;
154 [label="cement <= 303.55\nmse = 14.483\nsamples = 8\nvalue = 47.839", fillcolor="#f1b992"] ;
144 -> 154 ;
155 [label="cement <= 293.05\nmse = 4.645\nsamples = 5\nvalue = 49.718", fillcolor="#f0b68d"] ;
154 -> 155 ;
156 [label="mse = 3.363\nsamples = 2\nvalue = 47.673", fillcolor="#f1ba92"] ;
155 -> 156 ;
157 [label="mse = 2.636\nsamples = 3\nvalue = 50.594", fillcolor="#f0b58a"] ;
155 -> 157 ;
158 [label="mse = 8.17\nsamples = 3\nvalue = 43.14", fillcolor="#f2c19e"] ;
154 -> 158 ;
159 [label="coarse_aggregate <= 811.5\nmse = 115.188\nsamples = 45\nvalue = 63.722", fillcolor="#eb9f68"] ;
143 -> 159 ;
160 [label="mse = 0.0\nsamples = 2\nvalue = 41.37", fillcolor="#f3c4a2"] ;
159 -> 160 ;
161 [label="age <= 73.0\nmse = 82.104\nsamples = 43\nvalue = 65.469", fillcolor="#eb9c64"] ;
159 -> 161 ;
162 [label="cement <= 388.45\nmse = 81.559\nsamples = 32\nvalue = 63.157", fillcolor="#eba06a"] ;
161 -> 162 ;
163 [label="superplasticizer <= 7.25\nmse = 70.413\nsamples = 20\nvalue = 59.108", fillcolor="#eda774"] ;
162 -> 163 ;
164 [label="mse = 0.0\nsamples = 1\nvalue = 81.75", fillcolor="#e58139"] ;
163 -> 164 ;
165 [label="superplasticizer <= 11.95\nmse = 51.903\nsamples = 19\nvalue = 58.203", fillcolor="#eda876"] ;
163 -> 165 ;
166 [label="water <= 174.45\nmse = 47.896\nsamples = 10\nvalue = 61.209", fillcolor="#eca36f"] ;
165 -> 166 ;
167 [label="mse = 16.707\nsamples = 6\nvalue = 65.33", fillcolor="#eb9c64"] ;
166 -> 167 ;
168 [label="mse = 36.654\nsamples = 4\nvalue = 55.715", fillcolor="#eeac7d"] ;
166 -> 168 ;
169 [label="blast_furnace_slag <= 56.9\nmse = 30.858\nsamples = 9\nvalue = 54.376", fillcolor="#eeae80"] ;
165 -> 169 ;
170 [label="mse = 23.023\nsamples = 5\nvalue = 50.548", fillcolor="#f0b58a"] ;
169 -> 170 ;
171 [label="mse = 14.996\nsamples = 4\nvalue = 57.567", fillcolor="#eda978"] ;
169 -> 171 ;
172 [label="water <= 149.4\nmse = 47.048\nsamples = 12\nvalue = 68.42", fillcolor="#ea975c"] ;
162 -> 172 ;
173 [label="mse = 0.192\nsamples = 3\nvalue = 74.341", fillcolor="#e88d4c"] ;
172 -> 173 ;
174 [label="coarse_aggregate <= 837.05\nmse = 43.226\nsamples = 9\nvalue = 65.231", fillcolor="#eb9c64"] ;
172 -> 174 ;
175 [label="mse = 1.135\nsamples = 2\nvalue = 72.853", fillcolor="#e89050"] ;
174 -> 175 ;
176 [label="coarse_aggregate <= 998.5\nmse = 33.193\nsamples = 7\nvalue = 62.944", fillcolor="#eba06a"] ;
174 -> 176 ;
177 [label="mse = 6.502\nsamples = 5\nvalue = 61.094", fillcolor="#eca36f"] ;
176 -> 177 ;
178 [label="mse = 71.487\nsamples = 2\nvalue = 70.345", fillcolor="#e99457"] ;
176 -> 178 ;
179 [label="coarse_aggregate <= 940.35\nmse = 34.933\nsamples = 11\nvalue = 71.377", fillcolor="#e99254"] ;
161 -> 179 ;
180 [label="cement <= 447.0\nmse = 3.433\nsamples = 6\nvalue = 66.722", fillcolor="#ea9a60"] ;
179 -> 180 ;
181 [label="blast_furnace_slag <= 200.85\nmse = 1.637\nsamples = 5\nvalue = 66.225", fillcolor="#ea9b62"] ;
180 -> 181 ;
182 [label="water <= 152.45\nmse = 0.62\nsamples = 4\nvalue = 65.6", fillcolor="#eb9c63"] ;
181 -> 182 ;
183 [label="mse = 0.0\nsamples = 1\nvalue = 66.7", fillcolor="#ea9a60"] ;
182 -> 183 ;
184 [label="mse = 0.023\nsamples = 3\nvalue = 65.05", fillcolor="#eb9d65"] ;
182 -> 184 ;
185 [label="mse = 0.0\nsamples = 1\nvalue = 68.1", fillcolor="#ea985d"] ;
181 -> 185 ;
186 [label="mse = -0.0\nsamples = 1\nvalue = 70.7", fillcolor="#e99356"] ;
180 -> 186 ;
187 [label="cement <= 470.9\nmse = 23.105\nsamples = 5\nvalue = 76.031", fillcolor="#e78b48"] ;
179 -> 187 ;
188 [label="blast_furnace_slag <= 141.85\nmse = 4.215\nsamples = 4\nvalue = 79.217", fillcolor="#e68540"] ;
187 -> 188 ;
189 [label="mse = 0.0\nsamples = 1\nvalue = 75.5", fillcolor="#e78b49"] ;
188 -> 189 ;
190 [label="mse = 1.742\nsamples = 3\nvalue = 79.96", fillcolor="#e6843e"] ;
188 -> 190 ;
191 [label="mse = -0.0\nsamples = 1\nvalue = 69.66", fillcolor="#e99559"] ;
187 -> 191 ;
192 [label="cement <= 311.45\nmse = 116.926\nsamples = 168\nvalue = 34.54", fillcolor="#f5cfb4"] ;
102 -> 192 ;
193 [label="fine_aggregate <= 862.1\nmse = 93.188\nsamples = 115\nvalue = 31.24", fillcolor="#f6d5bd"] ;
192 -> 193 ;
194 [label="age <= 42.0\nmse = 81.462\nsamples = 100\nvalue = 33.179", fillcolor="#f6d2b8"] ;
193 -> 194 ;
195 [label="coarse_aggregate <= 951.2\nmse = 69.146\nsamples = 69\nvalue = 30.34", fillcolor="#f7d6bf"] ;
194 -> 195 ;
196 [label="cement <= 160.5\nmse = 55.157\nsamples = 32\nvalue = 34.71", fillcolor="#f5cfb4"] ;
195 -> 196 ;
197 [label="cement <= 141.9\nmse = 27.129\nsamples = 12\nvalue = 29.277", fillcolor="#f7d8c2"] ;
196 -> 197 ;
198 [label="cement <= 136.45\nmse = 3.91\nsamples = 4\nvalue = 34.326", fillcolor="#f5d0b5"] ;
197 -> 198 ;
199 [label="mse = 0.975\nsamples = 2\nvalue = 32.74", fillcolor="#f6d2b9"] ;
198 -> 199 ;
200 [label="mse = 0.0\nsamples = 2\nvalue = 36.44", fillcolor="#f5ccaf"] ;
198 -> 200 ;
201 [label="superplasticizer <= 9.05\nmse = 15.364\nsamples = 8\nvalue = 26.065", fillcolor="#f8deca"] ;
197 -> 201 ;
202 [label="fly_ash <= 120.8\nmse = 6.837\nsamples = 7\nvalue = 27.021", fillcolor="#f8dcc8"] ;
201 -> 202 ;
203 [label="mse = 1.437\nsamples = 3\nvalue = 25.168", fillcolor="#f8dfcd"] ;
202 -> 203 ;
204 [label="mse = 5.371\nsamples = 4\nvalue = 28.874", fillcolor="#f7d9c3"] ;
202 -> 204 ;
205 [label="mse = 0.0\nsamples = 1\nvalue = 16.5", fillcolor="#fbede3"] ;
201 -> 205 ;
206 [label="blast_furnace_slag <= 110.75\nmse = 46.584\nsamples = 20\nvalue = 37.504", fillcolor="#f4cbad"] ;
196 -> 206 ;
207 [label="superplasticizer <= 2.5\nmse = 20.844\nsamples = 11\nvalue = 32.837", fillcolor="#f6d2b9"] ;
206 -> 207 ;
208 [label="mse = 0.0\nsamples = 1\nvalue = 47.81", fillcolor="#f1b992"] ;
207 -> 208 ;
209 [label="fine_aggregate <= 651.5\nmse = 8.106\nsamples = 10\nvalue = 31.956", fillcolor="#f6d4bb"] ;
207 -> 209 ;
210 [label="mse = 0.0\nsamples = 1\nvalue = 22.93", fillcolor="#f9e3d3"] ;
209 -> 210 ;
211 [label="mse = 3.203\nsamples = 9\nvalue = 32.52", fillcolor="#f6d3ba"] ;
209 -> 211 ;
212 [label="blast_furnace_slag <= 138.5\nmse = 26.345\nsamples = 9\nvalue = 42.446", fillcolor="#f2c2a0"] ;
206 -> 212 ;
213 [label="fly_ash <= 99.0\nmse = 18.631\nsamples = 5\nvalue = 46.007", fillcolor="#f1bc96"] ;
212 -> 213 ;
214 [label="mse = 3.217\nsamples = 4\nvalue = 43.86", fillcolor="#f2c09c"] ;
213 -> 214 ;
215 [label="mse = -0.0\nsamples = 1\nvalue = 53.52", fillcolor="#efb083"] ;
213 -> 215 ;
216 [label="cement <= 247.0\nmse = 4.722\nsamples = 4\nvalue = 38.441", fillcolor="#f4c9aa"] ;
212 -> 216 ;
217 [label="mse = 1.281\nsamples = 3\nvalue = 39.159", fillcolor="#f4c8a8"] ;
216 -> 217 ;
218 [label="mse = -0.0\nsamples = 1\nvalue = 33.42", fillcolor="#f6d1b7"] ;
216 -> 218 ;
219 [label="blast_furnace_slag <= 155.75\nmse = 47.883\nsamples = 37\nvalue = 26.276", fillcolor="#f8ddca"] ;
195 -> 219 ;
220 [label="cement <= 167.45\nmse = 43.131\nsamples = 25\nvalue = 23.776", fillcolor="#f9e1d0"] ;
219 -> 220 ;
221 [label="blast_furnace_slag <= 58.8\nmse = 22.876\nsamples = 8\nvalue = 19.017", fillcolor="#fbe9dd"] ;
220 -> 221 ;
222 [label="cement <= 159.7\nmse = 7.365\nsamples = 4\nvalue = 15.337", fillcolor="#fcefe6"] ;
221 -> 222 ;
223 [label="mse = 0.222\nsamples = 3\nvalue = 12.643", fillcolor="#fdf4ed"] ;
222 -> 223 ;
224 [label="mse = -0.0\nsamples = 1\nvalue = 18.03", fillcolor="#fbebdf"] ;
222 -> 224 ;
225 [label="fine_aggregate <= 801.15\nmse = 5.725\nsamples = 4\nvalue = 23.434", fillcolor="#f9e2d1"] ;
221 -> 225 ;
226 [label="mse = 1.04\nsamples = 3\nvalue = 24.54", fillcolor="#f9e0ce"] ;
225 -> 226 ;
227 [label="mse = 0.0\nsamples = 1\nvalue = 19.01", fillcolor="#fbe9dd"] ;
225 -> 227 ;
228 [label="water <= 181.85\nmse = 38.067\nsamples = 17\nvalue = 25.789", fillcolor="#f8decb"] ;
220 -> 228 ;
229 [label="mse = 10.726\nsamples = 2\nvalue = 42.435", fillcolor="#f2c2a0"] ;
228 -> 229 ;
230 [label="coarse_aggregate <= 972.0\nmse = 15.33\nsamples = 15\nvalue = 24.402", fillcolor="#f9e0cf"] ;
228 -> 230 ;
231 [label="mse = 3.982\nsamples = 6\nvalue = 28.252", fillcolor="#f7dac5"] ;
230 -> 231 ;
232 [label="mse = 7.906\nsamples = 9\nvalue = 22.091", fillcolor="#f9e4d5"] ;
230 -> 232 ;
233 [label="cement <= 155.3\nmse = 23.704\nsamples = 12\nvalue = 30.903", fillcolor="#f6d5be"] ;
219 -> 233 ;
234 [label="mse = 6.022\nsamples = 3\nvalue = 22.512", fillcolor="#f9e3d4"] ;
233 -> 234 ;
235 [label="blast_furnace_slag <= 156.5\nmse = 6.127\nsamples = 9\nvalue = 33.0", fillcolor="#f6d2b8"] ;
233 -> 235 ;
236 [label="mse = 0.0\nsamples = 1\nvalue = 39.3", fillcolor="#f4c8a8"] ;
235 -> 236 ;
237 [label="fine_aggregate <= 666.8\nmse = 3.713\nsamples = 8\nvalue = 32.58", fillcolor="#f6d3b9"] ;
235 -> 237 ;
238 [label="mse = 0.0\nsamples = 1\nvalue = 27.23", fillcolor="#f8dcc7"] ;
237 -> 238 ;
239 [label="mse = 1.788\nsamples = 7\nvalue = 32.962", fillcolor="#f6d2b8"] ;
237 -> 239 ;
240 [label="fine_aggregate <= 749.55\nmse = 39.617\nsamples = 31\nvalue = 40.44", fillcolor="#f3c6a5"] ;
194 -> 240 ;
241 [label="blast_furnace_slag <= 173.5\nmse = 26.042\nsamples = 8\nvalue = 47.009", fillcolor="#f1bb94"] ;
240 -> 241 ;
242 [label="blast_furnace_slag <= 95.0\nmse = 7.593\nsamples = 4\nvalue = 49.638", fillcolor="#f0b68d"] ;
241 -> 242 ;
243 [label="mse = 0.0\nsamples = 1\nvalue = 55.26", fillcolor="#eead7e"] ;
242 -> 243 ;
244 [label="mse = 1.527\nsamples = 3\nvalue = 48.514", fillcolor="#f0b890"] ;
242 -> 244 ;
245 [label="blast_furnace_slag <= 271.4\nmse = 27.789\nsamples = 4\nvalue = 43.065", fillcolor="#f2c19e"] ;
241 -> 245 ;
246 [label="mse = 2.673\nsamples = 3\nvalue = 40.133", fillcolor="#f3c6a6"] ;
245 -> 246 ;
247 [label="mse = 0.0\nsamples = 1\nvalue = 51.86", fillcolor="#efb387"] ;
245 -> 247 ;
248 [label="cement <= 264.2\nmse = 26.694\nsamples = 23\nvalue = 38.45", fillcolor="#f4c9aa"] ;
240 -> 248 ;
249 [label="age <= 95.0\nmse = 21.658\nsamples = 19\nvalue = 39.515", fillcolor="#f3c7a7"] ;
248 -> 249 ;
250 [label="fine_aggregate <= 851.9\nmse = 12.107\nsamples = 10\nvalue = 37.252", fillcolor="#f4cbad"] ;
249 -> 250 ;
251 [label="water <= 194.05\nmse = 9.504\nsamples = 9\nvalue = 37.988", fillcolor="#f4caab"] ;
250 -> 251 ;
252 [label="mse = 2.975\nsamples = 6\nvalue = 39.022", fillcolor="#f4c8a9"] ;
251 -> 252 ;
253 [label="mse = 15.149\nsamples = 3\nvalue = 34.197", fillcolor="#f5d0b5"] ;
251 -> 253 ;
254 [label="mse = -0.0\nsamples = 1\nvalue = 32.1", fillcolor="#f6d3bb"] ;
250 -> 254 ;
255 [label="fly_ash <= 140.8\nmse = 18.457\nsamples = 9\nvalue = 42.533", fillcolor="#f2c29f"] ;
249 -> 255 ;
256 [label="water <= 196.55\nmse = 12.115\nsamples = 8\nvalue = 43.35", fillcolor="#f2c19d"] ;
255 -> 256 ;
257 [label="mse = 4.828\nsamples = 7\nvalue = 44.229", fillcolor="#f2bf9b"] ;
256 -> 257 ;
258 [label="mse = -0.0\nsamples = 1\nvalue = 34.56", fillcolor="#f5cfb4"] ;
256 -> 258 ;
259 [label="mse = 0.0\nsamples = 1\nvalue = 33.54", fillcolor="#f6d1b7"] ;
255 -> 259 ;
260 [label="coarse_aggregate <= 972.0\nmse = 12.977\nsamples = 4\nvalue = 32.486", fillcolor="#f6d3ba"] ;
248 -> 260 ;
261 [label="mse = 5.903\nsamples = 3\nvalue = 33.922", fillcolor="#f5d0b6"] ;
260 -> 261 ;
262 [label="mse = -0.0\nsamples = 1\nvalue = 26.74", fillcolor="#f8dcc9"] ;
260 -> 262 ;
263 [label="fly_ash <= 71.4\nmse = 45.39\nsamples = 15\nvalue = 21.972", fillcolor="#f9e4d5"] ;
193 -> 263 ;
264 [label="coarse_aggregate <= 861.9\nmse = 19.855\nsamples = 11\nvalue = 24.806", fillcolor="#f9e0ce"] ;
263 -> 264 ;
265 [label="mse = 0.014\nsamples = 2\nvalue = 32.84", fillcolor="#f6d2b9"] ;
264 -> 265 ;
266 [label="fine_aggregate <= 942.55\nmse = 8.997\nsamples = 9\nvalue = 23.275", fillcolor="#f9e2d2"] ;
264 -> 266 ;
267 [label="cement <= 245.0\nmse = 2.73\nsamples = 5\nvalue = 25.133", fillcolor="#f8dfcd"] ;
266 -> 267 ;
268 [label="mse = 2.474\nsamples = 3\nvalue = 24.012", fillcolor="#f9e1d0"] ;
267 -> 268 ;
269 [label="mse = 0.469\nsamples = 2\nvalue = 26.255", fillcolor="#f8ddca"] ;
267 -> 269 ;
270 [label="age <= 59.0\nmse = 6.611\nsamples = 4\nvalue = 20.798", fillcolor="#fae6d8"] ;
266 -> 270 ;
271 [label="mse = 0.156\nsamples = 2\nvalue = 18.355", fillcolor="#fbeade"] ;
270 -> 271 ;
272 [label="mse = 3.183\nsamples = 2\nvalue = 22.752", fillcolor="#f9e3d3"] ;
270 -> 272 ;
273 [label="fine_aggregate <= 876.65\nmse = 5.486\nsamples = 4\nvalue = 11.851", fillcolor="#fdf5ef"] ;
263 -> 273 ;
274 [label="mse = 0.102\nsamples = 3\nvalue = 10.38", fillcolor="#fdf8f3"] ;
273 -> 274 ;
275 [label="mse = -0.0\nsamples = 1\nvalue = 15.53", fillcolor="#fcefe6"] ;
273 -> 275 ;
276 [label="blast_furnace_slag <= 147.0\nmse = 92.402\nsamples = 53\nvalue = 41.808", fillcolor="#f3c3a1"] ;
192 -> 276 ;
277 [label="cement <= 398.5\nmse = 58.071\nsamples = 45\nvalue = 40.091", fillcolor="#f3c6a6"] ;
276 -> 277 ;
278 [label="age <= 59.0\nmse = 23.216\nsamples = 33\nvalue = 37.711", fillcolor="#f4caac"] ;
277 -> 278 ;
279 [label="superplasticizer <= 1.5\nmse = 20.936\nsamples = 22\nvalue = 36.086", fillcolor="#f5cdb0"] ;
278 -> 279 ;
280 [label="cement <= 362.0\nmse = 10.275\nsamples = 10\nvalue = 33.762", fillcolor="#f5d1b6"] ;
279 -> 280 ;
281 [label="cement <= 326.5\nmse = 4.002\nsamples = 7\nvalue = 31.741", fillcolor="#f6d4bc"] ;
280 -> 281 ;
282 [label="mse = 0.0\nsamples = 1\nvalue = 25.18", fillcolor="#f8dfcd"] ;
281 -> 282 ;
283 [label="cement <= 344.0\nmse = 0.45\nsamples = 6\nvalue = 32.288", fillcolor="#f6d3ba"] ;
281 -> 283 ;
284 [label="mse = 0.305\nsamples = 4\nvalue = 32.044", fillcolor="#f6d4bb"] ;
283 -> 284 ;
285 [label="mse = 0.176\nsamples = 2\nvalue = 33.017", fillcolor="#f6d2b8"] ;
283 -> 285 ;
286 [label="mse = 0.235\nsamples = 3\nvalue = 37.517", fillcolor="#f4caac"] ;
280 -> 286 ;
287 [label="fine_aggregate <= 815.1\nmse = 17.443\nsamples = 12\nvalue = 39.404", fillcolor="#f4c7a8"] ;
279 -> 287 ;
288 [label="fine_aggregate <= 802.75\nmse = 12.428\nsamples = 9\nvalue = 37.958", fillcolor="#f4caab"] ;
287 -> 288 ;
289 [label="coarse_aggregate <= 1001.95\nmse = 2.711\nsamples = 7\nvalue = 39.464", fillcolor="#f3c7a7"] ;
288 -> 289 ;
290 [label="mse = 0.812\nsamples = 4\nvalue = 40.296", fillcolor="#f3c6a5"] ;
289 -> 290 ;
291 [label="mse = 3.141\nsamples = 3\nvalue = 38.425", fillcolor="#f4c9aa"] ;
289 -> 291 ;
292 [label="mse = -0.0\nsamples = 2\nvalue = 31.18", fillcolor="#f6d5bd"] ;
288 -> 292 ;
293 [label="mse = 0.05\nsamples = 3\nvalue = 44.707", fillcolor="#f2bf9a"] ;
287 -> 293 ;
294 [label="coarse_aggregate <= 953.0\nmse = 15.705\nsamples = 11\nvalue = 40.342", fillcolor="#f3c6a5"] ;
278 -> 294 ;
295 [label="fine_aggregate <= 632.0\nmse = 10.004\nsamples = 7\nvalue = 41.805", fillcolor="#f3c3a1"] ;
294 -> 295 ;
296 [label="age <= 317.5\nmse = 1.054\nsamples = 5\nvalue = 40.812", fillcolor="#f3c5a4"] ;
295 -> 296 ;
297 [label="cement <= 356.25\nmse = 0.242\nsamples = 4\nvalue = 40.523", fillcolor="#f3c5a5"] ;
296 -> 297 ;
298 [label="mse = 0.06\nsamples = 2\nvalue = 40.025", fillcolor="#f3c6a6"] ;
297 -> 298 ;
299 [label="mse = 0.087\nsamples = 2\nvalue = 40.855", fillcolor="#f3c5a4"] ;
297 -> 299 ;
300 [label="mse = 0.0\nsamples = 1\nvalue = 43.7", fillcolor="#f2c09c"] ;
296 -> 300 ;
301 [label="mse = 24.453\nsamples = 2\nvalue = 44.535", fillcolor="#f2bf9a"] ;
295 -> 301 ;
302 [label="water <= 197.5\nmse = 11.246\nsamples = 4\nvalue = 36.687", fillcolor="#f4ccaf"] ;
294 -> 302 ;
303 [label="mse = 0.405\nsamples = 2\nvalue = 39.012", fillcolor="#f4c8a9"] ;
302 -> 303 ;
304 [label="mse = 0.469\nsamples = 2\nvalue = 32.035", fillcolor="#f6d4bb"] ;
302 -> 304 ;
305 [label="fine_aggregate <= 747.5\nmse = 95.67\nsamples = 12\nvalue = 46.324", fillcolor="#f1bc95"] ;
277 -> 305 ;
306 [label="coarse_aggregate <= 885.2\nmse = 36.474\nsamples = 10\nvalue = 43.134", fillcolor="#f2c19e"] ;
305 -> 306 ;
307 [label="mse = 0.0\nsamples = 1\nvalue = 23.85", fillcolor="#f9e1d0"] ;
306 -> 307 ;
308 [label="cement <= 477.5\nmse = 15.458\nsamples = 9\nvalue = 44.268", fillcolor="#f2bf9b"] ;
306 -> 308 ;
309 [label="coarse_aggregate <= 1074.7\nmse = 2.213\nsamples = 6\nvalue = 42.47", fillcolor="#f2c2a0"] ;
308 -> 309 ;
310 [label="cement <= 451.25\nmse = 0.563\nsamples = 5\nvalue = 43.032", fillcolor="#f2c19e"] ;
309 -> 310 ;
311 [label="mse = 0.424\nsamples = 3\nvalue = 43.434", fillcolor="#f2c19d"] ;
310 -> 311 ;
312 [label="mse = 0.029\nsamples = 2\nvalue = 42.328", fillcolor="#f3c2a0"] ;
310 -> 312 ;
313 [label="mse = 0.0\nsamples = 1\nvalue = 39.38", fillcolor="#f4c7a8"] ;
309 -> 313 ;
314 [label="mse = 13.84\nsamples = 3\nvalue = 50.113", fillcolor="#f0b68c"] ;
308 -> 314 ;
315 [label="mse = 23.347\nsamples = 2\nvalue = 65.467", fillcolor="#eb9c64"] ;
305 -> 315 ;
316 [label="cement <= 322.85\nmse = 124.536\nsamples = 8\nvalue = 58.117", fillcolor="#eda877"] ;
276 -> 316 ;
317 [label="fine_aggregate <= 699.15\nmse = 35.381\nsamples = 4\nvalue = 49.002", fillcolor="#f0b78e"] ;
316 -> 317 ;
318 [label="mse = 0.0\nsamples = 1\nvalue = 38.7", fillcolor="#f4c9a9"] ;
317 -> 318 ;
319 [label="mse = 0.0\nsamples = 3\nvalue = 52.437", fillcolor="#efb286"] ;
317 -> 319 ;
320 [label="water <= 192.95\nmse = 47.524\nsamples = 4\nvalue = 67.232", fillcolor="#ea995f"] ;
316 -> 320 ;
321 [label="mse = 13.31\nsamples = 3\nvalue = 70.77", fillcolor="#e99356"] ;
320 -> 321 ;
322 [label="mse = -0.0\nsamples = 1\nvalue = 56.62", fillcolor="#eeab7b"] ;
320 -> 322 ;
}